<?xml version="1.0" encoding="UTF-8"?>
<BIF VERSION="0.3"  xmlns="http://www.cs.ubc.ca/labs/lci/fopi/ve/XMLBIFv0_3"
	xmlns:xsi="http://www.w3.org/2001/XMLSchema-instance"
	xsi:schemaLocation="http://www.cs.ubc.ca/labs/lci/fopi/ve/XMLBIFv0_3 http://www.cs.ubc.ca/labs/lci/fopi/ve/XMLBIFv0_3/XMLBIFv0_3.xsd">
<NETWORK>
<NAME>Nuclear Power Station</NAME>
<PROPERTY>short = </PROPERTY>
<PROPERTY>detailed = </PROPERTY>

<VARIABLE TYPE="nature">
	<NAME>WaterLeak</NAME>
	<OUTCOME>T</OUTCOME>
	<OUTCOME>F</OUTCOME>
	<PROPERTY>position = (7881.306640625, 5337.3896484375)</PROPERTY>
</VARIABLE>

<VARIABLE TYPE="nature">
	<NAME>WaterLeakWarning</NAME>
	<OUTCOME>T</OUTCOME>
	<OUTCOME>F</OUTCOME>
	<PROPERTY>position = (7938.74365234375, 5435.71630859375)</PROPERTY>
</VARIABLE>

<VARIABLE TYPE="nature">
	<NAME>IcyWeather</NAME>
	<OUTCOME>T</OUTCOME>
	<OUTCOME>F</OUTCOME>
	<PROPERTY>position = (7881.306640625, 5247.82666015625)</PROPERTY>
</VARIABLE>

<VARIABLE TYPE="nature">
	<NAME>PumpFailure</NAME>
	<OUTCOME>T</OUTCOME>
	<OUTCOME>F</OUTCOME>
	<PROPERTY>position = (7688.54931640625, 5335.44384765625)</PROPERTY>
</VARIABLE>

<VARIABLE TYPE="nature">
	<NAME>PumpFailureWarning</NAME>
	<OUTCOME>T</OUTCOME>
	<OUTCOME>F</OUTCOME>
	<PROPERTY>position = (7632.08544921875, 5433.76904296875)</PROPERTY>
</VARIABLE>

<VARIABLE TYPE="nature">
	<NAME>Meltdown</NAME>
	<OUTCOME>T</OUTCOME>
	<OUTCOME>F</OUTCOME>
	<PROPERTY>position = (7833.01171875, 5612.12841796875)</PROPERTY>
</VARIABLE>

<VARIABLE TYPE="nature">
	<NAME>Battery</NAME>
	<OUTCOME>T</OUTCOME>
	<OUTCOME>F</OUTCOME>
	<PROPERTY>position = (8097.6181640625, 5313.044921875)</PROPERTY>
</VARIABLE>

<VARIABLE TYPE="nature">
	<NAME>Radio</NAME>
	<OUTCOME>T</OUTCOME>
	<OUTCOME>F</OUTCOME>
	<PROPERTY>position = (8021.6162109375, 5377.125)</PROPERTY>
</VARIABLE>

<VARIABLE TYPE="nature">
	<NAME>Ignition</NAME>
	<OUTCOME>T</OUTCOME>
	<OUTCOME>F</OUTCOME>
	<PROPERTY>position = (8187.77685546875, 5377.125)</PROPERTY>
</VARIABLE>

<VARIABLE TYPE="nature">
	<NAME>Starts</NAME>
	<OUTCOME>T</OUTCOME>
	<OUTCOME>F</OUTCOME>
	<PROPERTY>position = (8276.4453125, 5446.4208984375)</PROPERTY>
</VARIABLE>

<VARIABLE TYPE="nature">
	<NAME>Gas</NAME>
	<OUTCOME>T</OUTCOME>
	<OUTCOME>F</OUTCOME>
	<PROPERTY>position = (8381.5068359375, 5379.359375)</PROPERTY>
</VARIABLE>

<VARIABLE TYPE="nature">
	<NAME>Moves</NAME>
	<OUTCOME>T</OUTCOME>
	<OUTCOME>F</OUTCOME>
	<PROPERTY>position = (8273.46484375, 5528.38330078125)</PROPERTY>
</VARIABLE>

<VARIABLE TYPE="nature">
	<NAME>Survives</NAME>
	<OUTCOME>T</OUTCOME>
	<OUTCOME>F</OUTCOME>
	<PROPERTY>position = (8231.9833984375, 5763.22265625)</PROPERTY>
</VARIABLE>

<VARIABLE TYPE="nature">
	<NAME>Sleeping</NAME>
	<OUTCOME>T</OUTCOME>
	<OUTCOME>F</OUTCOME>
	<PROPERTY>position = (7455.103515625, 5580.13330078125)</PROPERTY>
</VARIABLE>

<VARIABLE TYPE="nature">
	<NAME>CanReact</NAME>
	<OUTCOME>T</OUTCOME>
	<OUTCOME>F</OUTCOME>
	<PROPERTY>position = (7459.24951171875, 5759.71728515625)</PROPERTY>
</VARIABLE>

<VARIABLE TYPE="nature">
	<NAME>KnowsWhatToDo</NAME>
	<OUTCOME>T</OUTCOME>
	<OUTCOME>F</OUTCOME>
	<PROPERTY>position = (7461.4931640625, 5898.88916015625)</PROPERTY>
</VARIABLE>

<VARIABLE TYPE="nature">
	<NAME>Repair</NAME>
	<OUTCOME>T</OUTCOME>
	<OUTCOME>F</OUTCOME>
	<PROPERTY>position = (7680.45556640625, 5738.28662109375)</PROPERTY>
</VARIABLE>

<VARIABLE TYPE="nature">
	<NAME>IcyWeatherD-1</NAME>
	<OUTCOME>T</OUTCOME>
	<OUTCOME>F</OUTCOME>
	<PROPERTY>position = (8042.3994140625, 5131.0859375)</PROPERTY>
</VARIABLE>

<VARIABLE TYPE="nature">
	<NAME>IcyWeatherD-2</NAME>
	<OUTCOME>T</OUTCOME>
	<OUTCOME>F</OUTCOME>
	<PROPERTY>position = (8264.3291015625, 5131.0859375)</PROPERTY>
</VARIABLE>

<VARIABLE TYPE="nature">
	<NAME>OneOrMore</NAME>
	<OUTCOME>T</OUTCOME>
	<OUTCOME>F</OUTCOME>
	<OBS>F</OBS>
	<PROPERTY>position = (7998.48828125, 5535.7802734375)</PROPERTY>
</VARIABLE>

<VARIABLE TYPE="nature">
	<NAME>HSSurvival</NAME>
	<OUTCOME>T</OUTCOME>
	<OUTCOME>F</OUTCOME>
	<PROPERTY>position = (7902.359375, 5936.9140625)</PROPERTY>
</VARIABLE>

<DEFINITION>
	<FOR>WaterLeak</FOR>
	<GIVEN>IcyWeather</GIVEN>
	<TABLE>0.2 0.8 0.1 0.9</TABLE>
</DEFINITION>

<DEFINITION>
	<FOR>WaterLeakWarning</FOR>
	<GIVEN>WaterLeak</GIVEN>
	<TABLE>0.9 0.1 0.05 0.95</TABLE>
</DEFINITION>

<DEFINITION>
	<FOR>IcyWeather</FOR>
	<GIVEN>IcyWeatherD-1</GIVEN>
	<TABLE>0.4 0.6 0.2 0.8</TABLE>
</DEFINITION>

<DEFINITION>
	<FOR>PumpFailure</FOR>
	<TABLE>0.1 0.9</TABLE>
</DEFINITION>

<DEFINITION>
	<FOR>PumpFailureWarning</FOR>
	<GIVEN>PumpFailure</GIVEN>
	<TABLE>0.9 0.1 0.05 0.95</TABLE>
</DEFINITION>

<DEFINITION>
	<FOR>Meltdown</FOR>
	<GIVEN>WaterLeak</GIVEN>
	<GIVEN>PumpFailure</GIVEN>
	<GIVEN>Repair</GIVEN>
	<TABLE>0.0 1.0 0.2 0.8 0.0 1.0 0.1 0.9 0.0 1.0 0.15 0.85 0.0 1.0 0.001 0.999</TABLE>
</DEFINITION>

<DEFINITION>
	<FOR>Battery</FOR>
	<GIVEN>IcyWeather</GIVEN>
	<TABLE>0.8 0.2 0.95 0.05</TABLE>
</DEFINITION>

<DEFINITION>
	<FOR>Radio</FOR>
	<GIVEN>Battery</GIVEN>
	<TABLE>0.95 0.05 0.0 1.0</TABLE>
</DEFINITION>

<DEFINITION>
	<FOR>Ignition</FOR>
	<GIVEN>Battery</GIVEN>
	<TABLE>0.95 0.05 0.0 1.0</TABLE>
</DEFINITION>

<DEFINITION>
	<FOR>Starts</FOR>
	<GIVEN>Ignition</GIVEN>
	<GIVEN>Gas</GIVEN>
	<TABLE>0.95 0.05 0.0 1.0 0.0 1.0 0.0 1.0</TABLE>
</DEFINITION>

<DEFINITION>
	<FOR>Gas</FOR>
	<TABLE>0.95 0.05</TABLE>
</DEFINITION>

<DEFINITION>
	<FOR>Moves</FOR>
	<GIVEN>Starts</GIVEN>
	<TABLE>0.95 0.05 0.0 1.0</TABLE>
</DEFINITION>

<DEFINITION>
	<FOR>Survives</FOR>
	<GIVEN>Meltdown</GIVEN>
	<GIVEN>Moves</GIVEN>
	<TABLE>0.8 0.2 0.0 1.0 1.0 0.0 1.0 0.0</TABLE>
</DEFINITION>

<DEFINITION>
	<FOR>Sleeping</FOR>
	<TABLE>0.6 0.4</TABLE>
</DEFINITION>

<DEFINITION>
	<FOR>CanReact</FOR>
	<GIVEN>WaterLeakWarning</GIVEN>
	<GIVEN>PumpFailureWarning</GIVEN>
	<GIVEN>Sleeping</GIVEN>
	<TABLE>0.2 0.8 0.9 0.1 0.1 0.9 0.7 0.3 0.1 0.9 0.7 0.3 0.0 1.0 1.0 0.0</TABLE>
</DEFINITION>

<DEFINITION>
	<FOR>KnowsWhatToDo</FOR>
	<GIVEN>CanReact</GIVEN>
	<TABLE>0.3 0.7 0.0 1.0</TABLE>
</DEFINITION>

<DEFINITION>
	<FOR>Repair</FOR>
	<GIVEN>KnowsWhatToDo</GIVEN>
	<TABLE>0.8 0.2 0.01 0.99</TABLE>
</DEFINITION>

<DEFINITION>
	<FOR>IcyWeatherD-1</FOR>
	<GIVEN>IcyWeatherD-2</GIVEN>
	<TABLE>0.4 0.6 0.2 0.8</TABLE>
</DEFINITION>

<DEFINITION>
	<FOR>IcyWeatherD-2</FOR>
	<TABLE>0.4 0.6</TABLE>
</DEFINITION>

<DEFINITION>
	<FOR>OneOrMore</FOR>
	<GIVEN>WaterLeakWarning</GIVEN>
	<GIVEN>PumpFailureWarning</GIVEN>
	<TABLE>1.0 0.0 1.0 0.0 1.0 0.0 0.0 1.0</TABLE>
</DEFINITION>

<DEFINITION>
	<FOR>HSSurvival</FOR>
	<GIVEN>Meltdown</GIVEN>
	<GIVEN>Moves</GIVEN>
	<GIVEN>OneOrMore</GIVEN>
	<TABLE>0.8 0.2 0.0 1.0 0.0 1.0 0.0 1.0 1.0 0.0 1.0 0.0 1.0 0.0 0.0 1.0</TABLE>
</DEFINITION>
</NETWORK>
</BIF>
